tree
version=v3
num_class=1
num_tree_per_iteration=1
label_index=0
max_feature_idx=4
objective=binary sigmoid:1
feature_names=pclass age sex sibsp parch
feature_infos=[1:3] [0.17000000000000001:80] [0:1] [0:8] [0:9]
tree_sizes=1162 1159 1164 1159 1164 1162 1160 1165 1168 1169 1168 1173 1164 1171 1169 1173 1161 1169 1163 1166 1169 1172 1165 1170 1172 1169 1181 1182 1177 1172 1175 1175 1181 1171 1176 1170 1179 1181 1191 1179 1171 1179 1182 1182 1175

Tree=0
num_leaves=10
num_cat=0
split_feature=2 0 1 3 0 3 1 1 1
split_gain=365.887 95.5776 31.8967 31.8142 25.1504 11.9252 13.2685 9.21153 4.98396
threshold=1.0000000180025095e-35 2.5000000000000004 9.5000000000000018 1.5000000000000002 1.5000000000000002 2.5000000000000004 16.500000000000004 54.500000000000007 32.250000000000007
decision_type=2 2 2 2 2 2 2 2 2
left_child=1 -1 3 -2 7 6 -3 -4 -6
right_child=2 5 4 -5 8 -7 -8 -9 -10
leaf_value=-0.24819592172339586 -0.26321197866980128 -0.3252919806369447 -0.4812020509367802 -0.60063504818533342 -0.5795524169941062 -0.58248056021510997 -0.44992398138490719 -0.60328257768099103 -0.61997352450144105
leaf_weight=59.017285704612732 6.8460051417350751 11.331318855285643 33.993956565856934 4.7213828563690186 102.4540079832077 4.9574519991874686 34.702163994312286 7.5542125701904288 43.436722278594971
leaf_count=250 29 48 144 20 434 21 147 32 184
internal_value=-0.481191 -0.334837 -0.562094 -0.400936 -0.572039 -0.435115 -0.419245 -0.503399 -0.591587
internal_weight=0 110.008 199.006 11.5674 187.439 50.9909 46.0335 41.5482 145.891
internal_count=1309 466 843 49 794 216 195 176 618
is_linear=0
shrinkage=1


Tree=1
num_leaves=10
num_cat=0
split_feature=2 0 1 3 0 3 1 1 1
split_gain=293.1 71.3457 26.3931 24.9314 21.6658 9.67253 10.512 8.07281 4.47777
threshold=1.0000000180025095e-35 2.5000000000000004 9.5000000000000018 1.5000000000000002 1.5000000000000002 2.5000000000000004 27.500000000000004 36.750000000000007 32.250000000000007
decision_type=2 2 2 2 2 2 2 2 2
left_child=1 -1 3 -2 7 6 -3 -4 -6
right_child=2 5 4 -5 8 -7 -8 -9 -10
leaf_value=0.20055005539457987 0.18801009295742732 0.086470499733520417 0.034650870677723079 -0.11112892915193136 -0.09093420223205978 -0.093722757163287373 -0.016562229059635364 -0.055807503806975425 -0.12990001058400297
leaf_weight=61.547279357910156 7.1258648484945279 32.373448580503464 16.288727670907974 4.5748379826545715 99.876000463962555 4.8287124037742606 14.265777468681334 25.019219011068344 41.848260760307312
leaf_count=250 29 135 69 20 434 21 60 107 184
internal_value=0 0.127893 -0.0745572 0.0710502 -0.0838654 0.0410064 0.0549554 -0.0201376 -0.10244
internal_weight=0 113.015 194.733 11.7007 183.032 51.4679 46.6392 41.3079 141.724
internal_count=1309 466 843 49 794 216 195 176 618
is_linear=0
shrinkage=0.1


Tree=2
num_leaves=10
num_cat=0
split_feature=2 0 1 0 3 1 1 1 1
split_gain=238.029 56.3195 21.9418 18.7932 7.87739 9.27202 7.33775 4.10975 5.33247
threshold=1.0000000180025095e-35 2.5000000000000004 9.5000000000000018 1.5000000000000002 2.5000000000000004 16.500000000000004 54.500000000000007 32.250000000000007 28.750000000000004
decision_type=2 2 2 2 2 2 2 2 2
left_child=1 -1 -2 6 5 -3 -4 8 -5
right_child=2 4 3 7 -6 -7 -8 -9 -10
leaf_value=0.17766446762101751 0.064005978520544168 0.12554250247895332 0.0012138772991761599 -0.095471024443391353 -0.086926669981896743 0.023234128340727522 -0.11001011841154335 -0.12230154981698059 -0.035343972323406157
leaf_weight=62.46454268693924 11.656369298696516 11.830506563186644 33.878481835126877 79.030179306864738 4.6927983909845343 35.25991116464138 7.1904382705688468 40.094495296478271 18.134403750300407
leaf_count=250 49 48 144 353 21 147 32 184 81
internal_value=0 0.113738 -0.0689187 -0.0776073 0.0366245 0.048937 -0.0182595 -0.0953646 -0.0842492
internal_weight=0 114.248 189.984 178.328 51.7832 47.0904 41.0689 137.259 97.1646
internal_count=1309 466 843 794 216 195 176 618 434
is_linear=0
shrinkage=0.1


Tree=3
num_leaves=10
num_cat=0
split_feature=2 0 1 3 0 4 1 1 1
split_gain=195.059 46.1377 18.7841 28.9951 15.146 5.96704 5.79665 3.59201 5.99775
threshold=1.0000000180025095e-35 2.5000000000000004 14.250000000000002 2.5000000000000004 1.5000000000000002 1.5000000000000002 53.500000000000007 47.500000000000007 36.750000000000007
decision_type=2 2 2 2 2 2 2 2 2
left_child=1 -1 3 -2 6 -3 7 8 -4
right_child=2 5 4 -5 -6 -7 -8 -9 -10
leaf_value=0.16049279895724489 0.15035491740332396 0.050141108642072899 0.024071641640035391 -0.13355884786461544 -0.089956415909265064 -0.033548857585283018 -0.096870791439428172 0.075698430045660237 -0.070887476333107824
leaf_weight=62.23660334944725 9.4677688181400281 41.194202989339828 15.94621202349663 5.8011008799076071 129.61700420081615 10.740785971283911 7.8560581207275382 5.1234149932861319 11.411242485046385
leaf_count=250 39 170 67 26 604 46 36 22 49
internal_value=0 0.102422 -0.0637578 0.0424876 -0.073303 0.032833 -0.0197896 -0.00114616 -0.0155374
internal_weight=0 114.172 185.223 15.2689 169.954 51.935 40.3369 32.4809 27.3575
internal_count=1309 466 843 65 778 216 174 138 116
is_linear=0
shrinkage=0.1


Tree=4
num_leaves=10
num_cat=0
split_feature=2 0 1 3 0 1 4 1 1
split_gain=160.817 38.9436 15.7002 23.7906 13.2145 5.00308 4.79793 3.79998 5.11747
threshold=1.0000000180025095e-35 2.5000000000000004 14.250000000000002 2.5000000000000004 1.5000000000000002 54.500000000000007 1.5000000000000002 32.250000000000007 28.750000000000004
decision_type=2 2 2 2 2 2 2 2 2
left_child=1 -1 3 -2 5 -4 -3 8 -6
right_child=2 6 4 -5 7 -7 -8 -9 -10
leaf_value=0.14701015785709287 0.13432017797095958 0.044776990323605104 -0.0022048252767771829 -0.12637528295791009 -0.084697367914996866 -0.097083449602269084 -0.030448250368046756 -0.1110374064939032 -0.024115666035522509
leaf_weight=61.199627816677094 9.5335837602615339 41.498704001307487 33.34196212887764 5.5317270010709754 70.943964779376984 6.6695065498352042 10.655730009078978 36.80480694770813 17.354376599192619
leaf_count=250 39 170 142 26 339 32 46 184 81
internal_value=0 0.092901 -0.0591271 0.0385972 -0.0680437 -0.0180201 0.0294076 -0.0840426 -0.0727905
internal_weight=0 113.354 180.18 15.0653 165.115 40.0115 52.1544 125.103 88.2983
internal_count=1309 466 843 65 778 174 216 604 420
is_linear=0
shrinkage=0.1


Tree=5
num_leaves=10
num_cat=0
split_feature=2 0 1 0 1 1 3 1 1
split_gain=133.213 33.5009 13.3032 12.6146 4.7447 4.22648 6.63978 3.71366 4.3502
threshold=1.0000000180025095e-35 2.5000000000000004 9.5000000000000018 1.5000000000000002 36.750000000000007 27.500000000000004 1.5000000000000002 32.250000000000007 28.750000000000004
decision_type=2 2 2 2 2 2 2 2 2
left_child=1 -1 -2 4 -4 6 -3 8 -5
right_child=2 5 3 7 -6 -7 -8 -9 -10
leaf_value=0.13604087154286335 0.050288212577203451 0.063225519695522883 0.027662122010336028 -0.077940355704343878 -0.042154468802514097 -0.018774517404180725 -0.049261278303534772 -0.1055697431855943 -0.021916809595499756
leaf_weight=59.601884335279465 11.249859899282454 31.147371053695679 16.517740860581398 71.470253244042397 23.701358750462532 14.84606349468231 6.3106440156698218 34.937442660331726 17.1947021484375
leaf_count=250 49 126 69 353 107 62 28 184 81
internal_value=0 0.0847855 -0.0549037 -0.0621274 -0.0134812 0.0263786 0.0442746 -0.0779565 -0.0670758
internal_weight=0 111.906 175.071 163.821 40.2191 52.3041 37.458 123.602 88.665
internal_count=1309 466 843 794 176 216 154 618 434
is_linear=0
shrinkage=0.1


Tree=6
num_leaves=10
num_cat=0
split_feature=2 0 1 3 0 1 1 3 1
split_gain=110.629 29.1621 11.352 19.6274 10.1161 4.05553 3.41383 5.35957 3.34787
threshold=1.0000000180025095e-35 2.5000000000000004 14.250000000000002 2.5000000000000004 1.5000000000000002 54.500000000000007 27.500000000000004 1.5000000000000002 32.250000000000007
decision_type=2 2 2 2 2 2 2 2 2
left_child=1 -1 3 -2 5 -4 7 -3 -6
right_child=2 6 4 -5 8 -7 -8 -9 -10
leaf_value=0.1268524114763124 0.11958390387805161 0.056620295199476901 -0.0011472712448556621 -0.12120100895395897 -0.06295711319878719 -0.088798886482324826 -0.016965441118871473 -0.044981065417855348 -0.10056046751393968
leaf_weight=57.629022747278214 9.4250619113445264 31.294111281633377 33.207191362977028 5.2828902602195731 83.125226229429245 6.2764220237731925 14.789347931742666 6.224683314561843 33.105801463127136
leaf_count=250 39 126 142 26 420 32 62 28 184
internal_value=0 0.0777841 -0.05088 0.0330973 -0.058812 -0.0150806 0.0237244 0.0397638 -0.0736676
internal_weight=0 109.937 170.423 14.708 155.715 39.4836 52.3081 37.5188 116.231
internal_count=1309 466 843 65 778 174 216 154 604
is_linear=0
shrinkage=0.1


Tree=7
num_leaves=10
num_cat=0
split_feature=2 0 1 0 1 1 1 4 1
split_gain=92.1528 25.6178 9.52094 9.70914 3.73676 3.27287 4.00725 2.99163 3.425
threshold=1.0000000180025095e-35 2.5000000000000004 9.5000000000000018 1.5000000000000002 54.500000000000007 32.250000000000007 28.750000000000004 1.5000000000000002 16.500000000000004
decision_type=2 2 2 2 2 2 2 2 2
left_child=1 -1 -2 4 -4 6 -5 8 -3
right_child=2 7 3 5 -6 -7 -8 -9 -10
leaf_value=0.11896335865280905 0.042976771707723516 0.080334884438644283 0.0019699367982698697 -0.068914813051093635 -0.083601948133915818 -0.095908264890832276 -0.014048104619942403 -0.026496547902859602 0.015898596697563907
leaf_weight=55.420480668544769 10.925173491239546 11.307647556066511 33.69776825606823 67.001459434628487 6.013805389404296 31.333271026611328 16.611936450004578 10.447923660278319 30.495785608887672
leaf_count=250 49 46 144 353 32 184 81 46 124
internal_value=0 0.071601 -0.0472435 -0.0536167 -0.0109888 -0.0683437 -0.0580141 0.021366 0.0333283
internal_weight=0 107.672 165.583 154.658 39.7116 114.947 83.6134 52.2514 41.8034
internal_count=1309 466 843 794 176 618 434 216 170
is_linear=0
shrinkage=0.1


Tree=8
num_leaves=10
num_cat=0
split_feature=2 0 1 3 0 1 1 1 1
split_gain=76.781 22.6677 8.21794 16.3966 7.69934 2.97815 4.34911 2.95721 3.19284
threshold=1.0000000180025095e-35 2.5000000000000004 14.250000000000002 2.5000000000000004 1.5000000000000002 32.250000000000007 19.500000000000004 53.500000000000007 47.500000000000007
decision_type=2 2 2 2 2 2 2 2 2
left_child=1 -1 3 -2 7 6 -6 8 -4
right_child=2 -3 4 -5 5 -7 -8 -9 -10
leaf_value=0.11204395955333468 0.10789672329463136 0.019242974127265878 -0.013893581167403078 -0.11656472312405525 -0.10392351174721851 -0.091535861970509558 -0.043142767910504178 -0.073388245788921114 0.071878984204423332
leaf_weight=53.080875426530838 9.2277991920709592 52.210142701864243 27.154588147997856 5.0274201631546012 14.426498830318449 29.635910153388977 63.992264315485954 6.6548379659652701 5.1654661595821372
leaf_count=250 39 216 116 26 79 184 341 36 22
internal_value=0 0.0660272 -0.0437583 0.0287354 -0.0507869 -0.0645303 -0.0543244 -0.0126844 -0.000185211
internal_weight=0 105.291 161.285 14.2552 147.03 108.055 78.4188 38.9749 32.3201
internal_count=1309 466 843 65 778 604 420 174 138
is_linear=0
shrinkage=0.1


Tree=9
num_leaves=10
num_cat=0
split_feature=2 0 1 3 0 1 1 1 3
split_gain=64.0246 20.1983 6.84934 13.7778 6.72236 2.80769 3.96251 2.77411 3.13534
threshold=1.0000000180025095e-35 2.5000000000000004 14.250000000000002 2.5000000000000004 1.5000000000000002 32.250000000000007 19.500000000000004 36.750000000000007 1.0000000180025095e-35
decision_type=2 2 2 2 2 2 2 2 2
left_child=1 -1 3 -2 7 6 -6 -4 -9
right_child=2 -3 4 -5 5 -7 -8 8 -10
leaf_value=0.10586096234424017 0.098814834466611254 0.017283322217584662 0.020255677226659871 -0.11141320651821557 -0.099205631417999804 -0.087384020935235174 -0.039729520180929678 -0.060804004293469549 0.017701797271978344
leaf_weight=50.688251852989197 9.0761976242065412 52.311238139867783 16.068978548049927 4.7484073042869559 13.642303138971327 28.024134993553162 62.6156015843153 14.937639310956003 7.7145135253667823
leaf_count=250 39 216 67 26 79 184 341 71 36
internal_value=0 0.0608743 -0.0406072 0.0266067 -0.047105 -0.0603166 -0.0503696 -0.0115239 -0.0340677
internal_weight=0 102.999 156.828 13.8246 143.003 104.282 76.2579 38.7211 22.6522
internal_count=1309 466 843 65 778 604 420 174 107
is_linear=0
shrinkage=0.1


Tree=10
num_leaves=10
num_cat=0
split_feature=2 0 1 0 1 1 1 0 1
split_gain=53.3985 18.0369 5.86212 6.52755 2.79625 2.67162 3.65455 3.02792 3.5567
threshold=1.0000000180025095e-35 2.5000000000000004 9.5000000000000018 1.5000000000000002 36.750000000000007 32.250000000000007 24.250000000000004 2.5000000000000004 25.500000000000004
decision_type=2 2 2 2 2 2 2 2 2
left_child=1 -1 -2 4 -4 6 -5 -8 -9
right_child=2 -3 3 5 -6 -7 7 8 -10
leaf_value=0.10024511500868574 0.035807424571850169 0.01552887251075828 0.023041366195853199 -0.066839356677677361 -0.03110772833463182 -0.083407325819473979 -0.070977507156895145 0.076925710165375333 -0.022003707538345404
leaf_weight=48.300247639417648 10.140365943312643 52.394500032067299 16.628418326377869 41.310783922672272 22.360824689269066 26.50407075881958 9.65029329061508 4.3676856905221966 21.637033954262733
leaf_count=250 49 216 69 240 107 184 52 25 117
internal_value=0 0.0561647 -0.0376557 -0.0428848 -0.00801383 -0.0560248 -0.0465953 -0.0231401 -0.00538778
internal_weight=0 100.695 152.599 142.459 38.9892 103.47 76.9658 35.655 26.0047
internal_count=1309 466 843 794 176 618 434 194 142
is_linear=0
shrinkage=0.1


Tree=11
num_leaves=10
num_cat=0
split_feature=2 0 1 0 1 1 1 1 3
split_gain=44.4795 16.1187 4.94996 5.62431 2.71341 3.23961 2.53701 2.49359 4.17992
threshold=1.0000000180025095e-35 2.5000000000000004 4.5000000000000009 1.5000000000000002 32.250000000000007 28.750000000000004 54.500000000000007 27.500000000000004 1.5000000000000002
decision_type=2 2 2 2 2 2 2 2 2
left_child=1 -1 -2 6 5 -5 -4 8 -3
right_child=2 7 3 4 -6 -7 -8 -9 -10
leaf_value=0.09507136536067233 0.049392418880297974 0.042559159611329375 0.0037561865532053681 -0.051936573314329174 -0.07957123934289162 -0.0010501036640601044 -0.070499297426627541 -0.020673825692543703 -0.047095737717944661
leaf_weight=45.958757400512695 6.6723960041999808 31.337463736534119 33.689431637525558 62.648740902543068 25.078593611717224 15.632698178291319 5.3289471268653861 14.890899896621702 6.2348206043243399
leaf_count=250 32 126 145 369 184 81 32 62 28
internal_value=0 0.0518337 -0.0347887 -0.0387338 -0.0509453 -0.0417746 -0.00638528 0.0139567 0.0276816
internal_weight=0 98.4219 149.051 142.378 103.36 78.2814 39.0184 52.4632 37.5723
internal_count=1309 466 843 811 634 450 177 216 154
is_linear=0
shrinkage=0.1


Tree=12
num_leaves=10
num_cat=0
split_feature=2 0 1 3 0 1 1 0 1
split_gain=37.0714 14.3518 4.46507 11.5812 4.35528 2.27509 3.26441 2.15193 2.33705
threshold=1.0000000180025095e-35 2.5000000000000004 14.250000000000002 2.5000000000000004 1.5000000000000002 18.750000000000004 32.250000000000007 1.5000000000000002 37.500000000000007
decision_type=2 2 2 2 2 2 2 2 2
left_child=1 7 3 -2 -4 -6 -7 -1 -9
right_child=2 -3 4 -5 5 6 -8 8 -10
leaf_value=0.10928646726589514 0.090344894483977312 0.012598147167830146 -0.0090874390256725328 -0.10749505559595601 -0.098979922724274666 -0.032279659090295669 -0.075849960958538964 0.082033748231347903 -0.0070768331940375658
leaf_weight=25.167482614517212 8.7372979968786222 52.291936174035072 38.118928760290146 4.473946124315261 8.347541540861128 62.32483235001564 23.748142242431641 14.855805709958078 3.6702578812837592
leaf_count=144 39 216 174 26 55 365 184 85 21
internal_value=0 0.0479442 -0.0320912 0.023347 -0.0376172 -0.0491351 -0.044301 0.090246 0.0643798
internal_weight=0 95.9855 145.751 13.2112 132.539 94.4205 86.073 43.6935 18.5261
internal_count=1309 466 843 65 778 604 549 250 106
is_linear=0
shrinkage=0.1


Tree=13
num_leaves=10
num_cat=0
split_feature=2 0 1 3 1 0 1 1 3
split_gain=30.8794 12.817 3.69686 9.79528 4.00924 3.14534 3.25991 2.58057 2.67288
threshold=1.0000000180025095e-35 2.5000000000000004 14.250000000000002 2.5000000000000004 19.500000000000004 1.5000000000000002 32.250000000000007 36.750000000000007 1.0000000180025095e-35
decision_type=2 2 2 2 2 2 2 2 2
left_child=1 -1 3 -2 -4 7 -7 -6 -9
right_child=2 -3 4 -5 5 6 -8 8 -10
leaf_value=0.085728676216508953 0.083228310614511553 0.011327773362119539 -0.087712486201297332 -0.10309928270191651 0.027769438044519312 -0.027349998090996454 -0.072224731782040294 -0.051947599298416275 0.021519572311465719
leaf_weight=41.524801433086395 8.5461192131042463 52.338080406188965 12.852568954229353 4.2118816971778861 14.737285003066061 57.633587867021561 22.511363565921783 14.235144630074503 7.5939077883958808
leaf_count=250 39 216 85 26 61 341 184 71 36
internal_value=0 0.0442426 -0.029646 0.0217148 -0.0347034 -0.0288659 -0.0399546 -0.00456206 -0.0263898
internal_weight=0 93.8629 142.322 12.758 129.564 116.711 80.145 36.5663 21.8291
internal_count=1309 466 843 65 778 693 525 168 107
is_linear=0
shrinkage=0.1


Tree=14
num_leaves=10
num_cat=0
split_feature=2 0 0 1 0 4 1 3 3
split_gain=25.7072 11.415 3.20143 3.3602 2.15695 2.29313 2.14086 2.22 2.1384
threshold=1.0000000180025095e-35 2.5000000000000004 1.5000000000000002 3.5000000000000004 1.5000000000000002 1.0000000180025095e-35 36.750000000000007 1.0000000180025095e-35 1.0000000180025095e-35
decision_type=2 2 2 2 2 2 2 2 2
left_child=1 4 6 -4 -1 -6 -2 -8 -5
right_child=2 -3 3 8 5 -7 7 -9 -10
leaf_value=0.10173587824027419 0.023138331686492014 0.010187129126651311 0.04466209383176304 -0.03310258803264212 0.02300562865214572 0.097329392171549234 -0.047831306327227222 0.019216776902284058 -0.069496922725764229
leaf_weight=22.469721078872681 17.321350917220116 52.376328200101852 4.8138907849788657 74.681674242019653 9.7890133261680621 7.2077825814485541 13.930640980601313 7.6503463685512534 20.596897326409817
leaf_count=144 72 216 25 501 61 45 71 36 138
internal_value=0 0.04079 -0.0273902 -0.0368517 0.0814034 0.0545239 -0.00304657 -0.0240631 -0.0409702
internal_weight=0 91.8428 138.995 100.092 39.4665 16.9968 38.9023 21.581 95.2786
internal_count=1309 466 843 664 250 106 179 107 639
is_linear=0
shrinkage=0.1


Tree=15
num_leaves=10
num_cat=0
split_feature=2 0 1 0 4 1 4 3 4
split_gain=21.3399 10.1544 2.94358 3.16006 2.12348 2.7819 3.58875 2.11196 2.05661
threshold=1.0000000180025095e-35 2.5000000000000004 9.5000000000000018 1.5000000000000002 1.5000000000000002 16.500000000000004 1.0000000180025095e-35 1.0000000180025095e-35 1.5000000000000002
decision_type=2 2 2 2 2 2 2 2 2
left_child=1 -1 -2 -4 5 6 -3 -6 -5
right_child=2 4 3 8 7 -7 -8 -9 -10
leaf_value=0.077308314882452323 0.029415762533547371 0.11135331986814939 -0.0049987724531802844 -0.036579889642585434 0.01997468155565494 0.0037205646232431489 -0.0031638837629275919 -0.07036391961398554 -0.12120586518723793
leaf_weight=37.521580129861832 9.2203676104545575 6.3516996353864652 38.119176119565964 86.193177856504917 4.5869204401969892 30.723620504140854 4.8079976737499237 5.9378549307584763 2.9707144796848288
leaf_count=250 49 26 176 594 19 124 20 27 24
internal_value=0 0.0375952 -0.0251446 -0.029097 0.00916255 0.019253 0.0620152 -0.0309924 -0.0393994
internal_weight=0 89.9297 136.503 127.283 52.4081 41.8833 11.1597 10.5248 89.1639
internal_count=1309 466 843 794 216 170 46 46 618
is_linear=0
shrinkage=0.1


Tree=16
num_leaves=10
num_cat=0
split_feature=2 0 3 1 1 3 1 1 1
split_gain=17.7184 9.46652 3.36758 5.99205 2.54457 8.1229 3.61266 1.93803 2.85382
threshold=1.0000000180025095e-35 1.5000000000000002 2.5000000000000004 16.500000000000004 14.250000000000002 2.5000000000000004 19.500000000000004 36.750000000000007 30.250000000000004
decision_type=2 2 2 2 2 2 2 2 2
left_child=1 -1 3 -3 5 -2 -6 8 -5
right_child=4 2 -4 7 6 -7 -8 -9 -10
leaf_value=0.095101912383424761 0.076962437011873164 0.080706974867225612 -0.066820571014662503 0.0048960876444770693 -0.080501726938218915 -0.098583356873325867 -0.021817056700962355 -0.032920605339743968 0.079190235854243618
leaf_weight=20.037064790725708 8.2223191857337934 13.938937991857527 4.4896411150693885 33.31586354970932 11.590017072856424 3.8796415627002707 110.5303543806076 9.9711491912603361 6.1201079487800589
leaf_count=144 39 64 22 155 85 26 693 49 32
internal_value=0 0.0347098 0.0168714 0.0228031 -0.0230522 0.020686 -0.0273866 0.00646696 0.0164259
internal_weight=0 87.8728 67.8357 63.3461 134.222 12.102 122.12 49.4071 39.436
internal_count=1309 466 322 300 843 65 778 236 187
is_linear=0
shrinkage=0.1


Tree=17
num_leaves=10
num_cat=0
split_feature=2 0 3 1 0 1 1 1 3
split_gain=14.6861 8.5543 2.78152 4.99647 2.36739 2.85111 2.33486 2.8063 2.32086
threshold=1.0000000180025095e-35 1.5000000000000002 2.5000000000000004 16.500000000000004 1.5000000000000002 32.250000000000007 28.750000000000004 27.500000000000004 2.5000000000000004
decision_type=2 2 2 2 2 2 2 2 2
left_child=1 -1 3 -3 -2 6 7 8 -6
right_child=4 2 -4 -5 5 -7 -8 -9 -10
leaf_value=0.091618299398091851 -0.00021641049978364502 0.074167718887317213 -0.061792394088338191 0.0058368276628887536 -0.017162561718877197 -0.063427452695769951 0.015413333624567494 -0.10231477915073391 -0.096417443346300494
leaf_weight=18.784348726272583 38.356089740991592 13.665703043341635 4.3756022453308097 49.32823446393013 50.52847196906805 19.783307403326035 14.421868100762365 4.852900266647338 3.9863530024886122
leaf_count=144 179 64 22 236 338 184 81 32 29
internal_value=0 0.0319438 0.0153051 0.0206603 -0.0211393 -0.0297158 -0.0206775 -0.0294449 -0.022958
internal_weight=0 86.1539 67.3695 62.9939 131.929 93.5729 73.7896 59.3677 54.5148
internal_count=1309 466 322 300 843 664 480 399 367
is_linear=0
shrinkage=0.1


Tree=18
num_leaves=10
num_cat=0
split_feature=2 0 1 3 1 1 1 1 0
split_gain=12.1564 7.7473 2.3224 6.39435 3.26702 1.76328 2.44275 5.39516 2.18899
threshold=1.0000000180025095e-35 2.5000000000000004 14.250000000000002 2.5000000000000004 19.500000000000004 53.500000000000007 47.500000000000007 45.250000000000007 1.5000000000000002
decision_type=2 2 2 2 2 2 2 2 2
left_child=1 -1 3 -2 -4 6 7 8 -6
right_child=2 -3 4 -5 5 -7 -8 -9 -10
leaf_value=0.067263198466176163 0.072192096642044665 0.0051894795707607619 -0.07576276117233674 -0.09090777966388941 0.013361845898340727 -0.062136070364559537 0.043165422639175402 -0.13619983364156654 -0.022881185610272779
leaf_weight=32.930817425251007 8.0661338120698911 51.62988093495369 10.864337809383867 3.4241673946380606 22.237667918205261 8.4303307682275754 6.8398761227726927 3.753379523754119 66.49523026496172
leaf_count=250 39 216 85 26 96 63 39 22 473
internal_value=0 0.0293631 -0.0193391 0.0235875 -0.0234972 -0.0182276 -0.0145009 -0.0187656 -0.0137982
internal_weight=0 84.5607 130.111 11.4903 118.621 107.756 99.3262 92.4863 88.7329
internal_count=1309 466 843 65 778 693 630 591 569
is_linear=0
shrinkage=0.1


Tree=19
num_leaves=10
num_cat=0
split_feature=2 0 1 1 3 1 1 1 1
split_gain=10.0738 7.26636 2.63969 4.41621 2.73376 4.20552 2.24612 2.02016 2.52193
threshold=1.0000000180025095e-35 1.5000000000000002 36.750000000000007 31.500000000000004 1.0000000180025095e-35 24.250000000000004 16.500000000000004 9.5000000000000018 24.250000000000004
decision_type=2 2 2 2 2 2 2 2 2
left_child=1 -1 3 4 6 -6 -3 -2 -9
right_child=7 2 -4 -5 5 -7 -8 8 -10
leaf_value=0.085753658943986455 0.029865456760216597 0.082361365863689417 -0.035103137516180029 0.11831635806543127 0.0096448058182535407 -0.094847081519857934 0.017187629104882016 -0.042770682215933373 -0.01135347501185271
leaf_weight=16.776496410369873 8.3228180259466154 6.80586710572243 10.05698950588703 4.2672389745712271 16.424529433250431 5.0316991508007041 23.709595054388046 37.022676281630993 82.454938419163227
leaf_count=144 49 32 50 24 82 26 108 259 535
internal_value=0 0.0269611 0.0120833 0.0205215 0.0124918 -0.0148596 0.0317233 -0.0177704 -0.0210888
internal_weight=0 83.0724 66.2959 56.2389 51.9717 21.4562 30.5155 127.8 119.478
internal_count=1309 466 322 272 248 108 140 843 794
is_linear=0
shrinkage=0.1


Tree=20
num_leaves=10
num_cat=0
split_feature=2 0 3 1 0 1 1 1 0
split_gain=8.31136 6.51435 2.20786 3.79847 1.77113 2.67266 1.89647 2.6506 2.09617
threshold=1.0000000180025095e-35 1.5000000000000002 2.5000000000000004 16.500000000000004 1.5000000000000002 32.250000000000007 28.750000000000004 27.500000000000004 2.5000000000000004
decision_type=2 2 2 2 2 2 2 2 2
left_child=1 -1 3 -3 -2 6 7 -6 -8
right_child=4 2 -4 -5 5 -7 8 -9 -10
leaf_value=0.082521175548478376 0.0018974722060656965 0.063593698844410004 -0.058335131381590626 0.0029063139870943106 -0.016976304502522216 -0.057980214141413494 -0.039185927367387428 -0.097485580006228853 0.043381919383116779
leaf_weight=15.744261145591734 37.884824231266975 13.086587972939013 4.3009580522775641 48.674137301743031 51.448456548154354 18.29744328558445 4.4815442860126469 4.4424261003732672 9.7946169227361679
leaf_count=144 179 64 22 236 367 184 26 32 55
internal_value=0 0.0247173 0.0109411 0.0157655 -0.0161947 -0.0239426 -0.0150666 -0.0233755 0.0174624
internal_weight=0 81.8059 66.0617 61.7607 126.349 88.4645 70.167 55.8909 14.2762
internal_count=1309 466 322 300 843 664 480 399 81
is_linear=0
shrinkage=0.1


Tree=21
num_leaves=10
num_cat=0
split_feature=2 0 1 1 1 1 3 1 4
split_gain=6.86502 5.89078 1.68742 1.81415 3.59726 1.32152 1.31332 2.31522 1.46617
threshold=1.0000000180025095e-35 2.5000000000000004 4.5000000000000009 24.250000000000004 27.500000000000004 54.500000000000007 1.0000000180025095e-35 27.500000000000004 1.5000000000000002
decision_type=2 2 2 2 2 2 2 2 2
left_child=1 5 -2 -4 -5 -1 7 -3 -8
right_child=2 6 3 4 -6 -7 8 -9 -10
leaf_value=0.064689989930626621 0.039448130458530517 0.03285277848185799 -0.035118734016876811 0.036589211558943222 -0.018567251961534591 -0.013980262096807878 -0.0010814949941121332 -0.027487526607376647 -0.06132625689141661
leaf_weight=26.950723014771942 5.4863746613264075 21.804750904440883 38.560979098081589 14.381318867206572 66.505584895610809 2.318992316722869 14.861714005470278 8.9766366481780988 5.5476279258728018
leaf_count=229 32 90 276 91 444 21 62 37 27
internal_value=0 0.0226737 -0.0147791 -0.0172698 -0.00876069 0.0584571 0.00221355 0.015256 -0.0174571
internal_weight=0 80.4604 124.934 119.448 80.8869 29.2697 51.1907 30.7814 20.4093
internal_count=1309 466 843 811 535 250 216 127 89
is_linear=0
shrinkage=0.1


Tree=22
num_leaves=10
num_cat=0
split_feature=2 0 1 1 3 1 1 1 1
split_gain=5.66445 5.48741 1.89958 3.92604 1.92589 3.47498 1.75644 1.59853 1.54345
threshold=1.0000000180025095e-35 1.5000000000000002 36.750000000000007 31.500000000000004 1.0000000180025095e-35 24.250000000000004 11.250000000000002 16.500000000000004 14.250000000000002
decision_type=2 2 2 2 2 2 2 2 2
left_child=1 -1 3 4 7 6 -6 -3 -2
right_child=8 2 -4 -5 5 -7 -8 -9 -10
leaf_value=0.077187013875429158 0.022335168171834813 0.068862450910509729 -0.031804411665428377 0.11030197147851606 -0.029416491224740729 -0.08741465313798806 0.037361413108651563 0.012455697437966987 -0.01692736270672136
leaf_weight=14.176308274269102 10.987532258033751 6.3933957144618061 9.9047943800687772 4.0682771280407897 7.0572921931743648 5.036013811826705 8.9138164669275266 23.45848236978054 112.80924722552299
leaf_count=144 65 32 50 24 37 26 45 108 778
internal_value=0 0.0208284 0.0085049 0.0157737 0.00821226 -0.0149849 0.00785368 0.0245364 -0.0134426
internal_weight=0 79.0084 64.8321 54.9273 50.859 21.0071 15.9711 29.8519 123.797
internal_count=1309 466 322 272 248 108 82 140 843
is_linear=0
shrinkage=0.1


Tree=23
num_leaves=10
num_cat=0
split_feature=2 0 0 1 1 1 1 1 1
split_gain=4.66476 4.86644 1.5957 2.30167 1.79604 2.00173 3.00943 1.71098 2.34842
threshold=1.0000000180025095e-35 1.5000000000000002 1.5000000000000002 32.250000000000007 54.500000000000007 47.500000000000007 36.750000000000007 28.750000000000004 27.500000000000004
decision_type=2 2 2 2 2 2 2 2 2
left_child=1 -1 4 7 5 6 -2 8 -4
right_child=2 -3 3 -5 -6 -7 -8 -9 -10
leaf_value=0.074055963713945835 0.027195669417284275 0.0077126428053462745 -0.013733041262829093 -0.052693254378536537 -0.054193065605014516 0.066017551132533533 -0.041795690237295291 0.019413236473675335 -0.092850334312349375
leaf_weight=13.341896519064901 17.049724400043491 64.545673482120037 50.039465583860874 17.003209501504898 4.5115550160408011 5.8710777014493933 10.049121245741842 14.130851104855536 4.0558221116662017
leaf_count=144 72 322 367 184 32 26 49 81 32
internal_value=0 0.019077 -0.0122128 -0.019775 0.00498294 0.0130805 0.00161146 -0.0115711 -0.0196649
internal_weight=0 77.8876 122.711 85.2293 37.4815 32.9699 27.0988 68.2261 54.0953
internal_count=1309 466 843 664 179 147 121 480 399
is_linear=0
shrinkage=0.1


Tree=24
num_leaves=10
num_cat=0
split_feature=2 0 3 1 1 1 1 1 1
split_gain=3.84026 4.36047 1.57769 4.76212 2.27311 1.4295 1.69838 4.85484 1.63169
threshold=1.0000000180025095e-35 2.5000000000000004 2.5000000000000004 14.750000000000002 19.500000000000004 53.500000000000007 47.500000000000007 45.250000000000007 41.500000000000007
decision_type=2 2 2 2 2 2 2 2 2
left_child=1 -1 3 -2 -5 6 7 8 -6
right_child=2 -3 -4 4 5 -7 -8 -9 -10
leaf_value=0.050408239926779376 0.066810852018915901 0.00025218750975141124 -0.07226704088346278 -0.062531341670454127 -0.0095562791747729678 -0.052090453981484701 0.041529889282041557 -0.12935812721139911 0.045773179626888948
leaf_weight=26.332492589950562 7.7343746423721305 50.720605224370956 4.0819385200738898 8.9983073770999891 77.261441327631474 7.4925994053483 6.7736117765307418 3.3033790290355673 5.7249043732881537
leaf_count=250 39 216 32 81 524 63 39 22 43
internal_value=0 0.0173928 -0.0111519 -0.00902496 -0.0143789 -0.0100699 -0.00668681 -0.0104717 -0.00573932
internal_weight=0 77.0531 121.371 117.289 109.554 100.556 93.0633 86.2897 82.9863
internal_count=1309 466 843 811 772 691 628 589 567
is_linear=0
shrinkage=0.1


Tree=25
num_leaves=10
num_cat=0
split_feature=2 0 1 1 3 1 1 1 1
split_gain=3.16596 4.01098 1.60454 3.27934 1.61379 2.88008 1.42637 1.42049 1.38279
threshold=1.0000000180025095e-35 1.5000000000000002 36.750000000000007 31.500000000000004 1.0000000180025095e-35 24.250000000000004 44.500000000000007 11.250000000000002 16.500000000000004
decision_type=2 2 2 2 2 2 2 2 2
left_child=1 -1 3 4 8 7 -4 -6 -3
right_child=-2 2 6 -5 5 -7 -8 -9 -10
leaf_value=0.068760319709199144 -0.010192408873331928 0.062904000971080537 -0.069934001451734992 0.10097027309332203 -0.028039453790206548 -0.081355073400021002 0.0063224145000093813 0.032298086342348285 0.0096999131185024397
leaf_weight=12.070831194519995 119.94079078733921 6.1829010844230679 4.8405590355396253 3.9015986174345008 7.0214354842901257 5.0354876667261115 4.9727785885334015 8.7817674055695516 23.271446198225021
leaf_count=144 843 32 24 24 37 26 26 45 108
internal_value=0 0.0158864 0.00591521 0.0126525 0.0058011 -0.0154955 -0.0312921 0.00548984 0.0208682
internal_weight=0 76.0788 64.008 54.1946 50.293 20.8387 9.81334 15.8032 29.4543
internal_count=1309 466 322 272 248 108 50 82 140
is_linear=0
shrinkage=0.1


Tree=26
num_leaves=10
num_cat=0
split_feature=0 2 1 3 1 1 4 1 3
split_gain=2.74732 3.03121 2.0439 2.20599 4.93841 2.16316 2.51093 2.48795 1.39497
threshold=1.5000000000000002 1.0000000180025095e-35 36.750000000000007 2.5000000000000004 16.500000000000004 18.750000000000004 1.0000000180025095e-35 25.500000000000004 1.0000000180025095e-35
decision_type=2 2 2 2 2 2 2 2 2
left_child=1 -1 3 4 -2 -6 8 -8 -7
right_child=2 -3 -4 -5 5 6 7 -9 -10
leaf_value=0.065678617988137095 0.04633392112761843 0.0066967683619155094 -0.036355339575792296 -0.054535225172506342 -0.053818265653977959 -0.002995366210878635 0.11722403704615342 0.010293027317182452 -0.037537445030866638
leaf_weight=11.408407911658285 20.126743033528328 36.882283568382263 20.264877773821354 7.5522517040371886 9.3405802994966489 64.412142515182495 3.1596879288554174 6.9881822615861893 14.2841534987092
leaf_count=144 111 179 170 52 64 439 21 40 89
internal_value=0 0.0206309 -0.00688127 -0.00213576 0.00120909 -0.00804098 -0.00322821 0.0435876 -0.00926509
internal_weight=0 48.2907 146.129 125.864 118.311 98.1847 88.8442 10.1479 78.6963
internal_count=1309 323 986 816 764 653 589 61 528
is_linear=0
shrinkage=0.1


Tree=27
num_leaves=10
num_cat=0
split_feature=2 0 1 3 1 1 1 0 3
split_gain=2.40437 3.04933 1.58636 1.21997 3.59373 1.50598 2.98807 1.12356 2.04111
threshold=1.0000000180025095e-35 2.5000000000000004 54.500000000000007 2.5000000000000004 10.500000000000002 24.250000000000004 27.500000000000004 1.5000000000000002 1.0000000180025095e-35
decision_type=2 2 2 2 2 2 2 2 2
left_child=1 2 -1 4 -2 -6 -7 -8 -9
right_child=3 -3 -4 -5 5 6 7 8 -10
leaf_value=0.05091800205861674 0.073548259643770972 4.8450288079479581e-05 -0.044183602280079198 -0.065189167944053147 -0.028995715169543475 0.038036278164195511 0.0014679893390996028 -0.014200952314236579 -0.080587105470374912
leaf_weight=22.120161741971973 5.2782950252294532 50.141171231865883 1.9050446748733509 3.7258303984999648 32.465387277305126 14.242306694388388 29.601443752646446 27.631506592035294 5.5639732182025901
leaf_count=229 30 216 21 32 248 91 147 242 53
internal_value=0 0.0140842 0.0433771 -0.00887387 -0.00704588 -0.0109306 -0.00331778 -0.0126969 -0.0253281
internal_weight=0 74.1664 24.0252 118.509 114.783 109.505 77.0392 62.7969 33.1955
internal_count=1309 466 250 843 811 781 533 442 295
is_linear=0
shrinkage=0.1


Tree=28
num_leaves=10
num_cat=0
split_feature=0 2 1 3 1 1 4 1 1
split_gain=2.0585 2.45592 1.65681 1.69071 3.76827 1.77368 1.99282 1.42587 2.29318
threshold=1.5000000000000002 1.0000000180025095e-35 36.750000000000007 2.5000000000000004 16.500000000000004 18.750000000000004 1.0000000180025095e-35 14.750000000000002 8.5000000000000018
decision_type=2 2 2 2 2 2 2 2 2
left_child=1 -1 3 4 7 -6 -7 8 -2
right_child=2 -3 -4 -5 5 6 -8 -9 -10
leaf_value=0.060800885583923298 0.056761278665949183 0.0059153471096180747 -0.032962622489228939 -0.048904879691937145 -0.048893829226142979 -0.0079356986182235346 0.03958578711777111 0.091102546155569883 -0.023621886521154715
leaf_weight=10.461706951260565 9.458905830979349 36.937498867511749 19.677023433148861 7.1545650959014884 9.1145447418093664 77.811953842639923 9.9532552734017354 4.4301149249076834 5.6802618727087966
leaf_count=144 54 179 170 52 64 528 61 29 28
internal_value=0 0.0180294 -0.00601137 -0.00172088 0.00117808 -0.00690681 -0.00254639 0.0412031 0.0266013
internal_weight=0 47.3992 143.281 123.604 116.449 96.8798 87.7652 19.5693 15.1392
internal_count=1309 323 986 816 764 653 589 111 82
is_linear=0
shrinkage=0.1


Tree=29
num_leaves=10
num_cat=0
split_feature=2 0 1 1 1 1 1 1 0
split_gain=1.79906 2.37705 1.16295 1.44482 4.34382 1.51361 1.89182 2.31086 4.63032
threshold=1.0000000180025095e-35 1.5000000000000002 53.500000000000007 47.500000000000007 45.250000000000007 41.500000000000007 36.750000000000007 33.500000000000007 1.5000000000000002
decision_type=2 2 2 2 2 2 2 2 2
left_child=1 -1 3 4 5 6 7 -2 -9
right_child=2 -3 -4 -5 -6 -7 -8 8 -10
leaf_value=0.057771155738851637 -0.0086694814653650691 0.005125796185365154 -0.047062173604120905 0.039637901891602677 -0.12615960321834638 0.045572627375993852 -0.056971039221871425 0.12148014563836225 -0.031517906399818885
leaf_weight=9.9371168911457044 78.969659101217985 62.645269587635994 7.059042014181613 6.7481143698096266 3.0262232720851889 5.6821603327989569 7.163142777979373 4.1173382252454749 3.8070516213774681
leaf_count=144 554 322 63 39 22 43 60 17 45
internal_value=0 0.0123334 -0.00772138 -0.00518555 -0.00812888 -0.00454768 -0.00757553 -0.00350359 0.0479765
internal_weight=0 72.5824 116.573 109.514 102.766 99.7394 94.0572 86.894 7.92439
internal_count=1309 466 843 780 741 719 676 616 62
is_linear=0
shrinkage=0.1


Tree=30
num_leaves=10
num_cat=0
split_feature=3 1 0 2 3 1 1 0 1
split_gain=1.65313 3.2333 1.86751 2.51202 1.93249 1.31542 1.25996 2.28753 1.01166
threshold=2.5000000000000004 16.500000000000004 1.5000000000000002 1.0000000180025095e-35 1.0000000180025095e-35 9.5000000000000018 14.750000000000002 2.5000000000000004 54.500000000000007
decision_type=2 2 2 2 2 2 2 2 2
left_child=1 6 3 -3 -4 -2 7 -1 -5
right_child=5 2 4 8 -6 -7 -8 -9 -10
leaf_value=0.085959193843549775 -0.07975348092383297 0.062268899030442151 -0.0025629524554506306 0.0087034109107167884 -0.033293584564166777 0.0058846481988556448 0.084563538291068344 0.0019778169520693672 -0.044236289808389409
leaf_weight=4.5190232768654868 4.5510500147938719 8.8145398795604688 88.564001716673374 31.510548964142799 26.612204886972904 2.9603161849081516 4.701745279133319 11.490020558238029 4.0767105221748343
leaf_count=34 32 134 639 141 183 25 34 55 32
internal_value=0 0.00187784 -0.00294664 0.0144765 -0.00966346 -0.0460025 0.0390508 0.025684 0.00263889
internal_weight=0 180.289 159.578 44.4018 115.176 7.51137 20.7108 16.009 35.5873
internal_count=1309 1252 1129 307 822 57 123 89 173
is_linear=0
shrinkage=0.1


Tree=31
num_leaves=10
num_cat=0
split_feature=2 0 1 1 1 1 1 1 1
split_gain=1.41886 1.83916 1.59353 1.03698 3.11268 1.97828 0.876954 1.20432 1.91679
threshold=1.0000000180025095e-35 2.5000000000000004 54.500000000000007 14.750000000000002 5.5000000000000009 18.250000000000004 53.500000000000007 24.250000000000004 25.500000000000004
decision_type=2 2 2 2 2 2 2 2 2
left_child=1 2 -1 4 -3 -5 7 -2 -9
right_child=6 3 -4 5 -6 -7 -8 8 -10
leaf_value=0.043382924418607041 -0.018682514348970843 0.021629802504917948 -0.055487960214232225 0.05255043628396501 -0.091429660265263418 -0.0034565335187728128 -0.042014053325025821 0.057912248875520905 -0.0018431655221418015
leaf_weight=19.962240967899564 39.374320853501558 5.481313228607176 1.7750860005617131 7.8631737530231467 4.3817509561777115 31.861617729067802 6.6959655061364165 5.8661409467458716 63.225184231996536
leaf_count=229 308 26 21 36 22 132 63 37 435
internal_value=0 0.0110556 0.0353091 0.000423898 -0.0285978 0.00762955 -0.00689248 -0.0047243 0.00323032
internal_weight=0 71.3252 21.7373 49.5879 9.86306 39.7248 115.162 108.466 69.0913
internal_count=1309 466 250 216 48 168 843 780 472
is_linear=0
shrinkage=0.1


Tree=32
num_leaves=10
num_cat=0
split_feature=3 1 0 2 3 1 1 1 1
split_gain=1.30972 2.77476 1.58283 1.99108 1.64039 1.11212 1.02793 2.17877 3.05227
threshold=2.5000000000000004 16.500000000000004 1.5000000000000002 1.0000000180025095e-35 1.0000000180025095e-35 9.5000000000000018 24.250000000000004 30.250000000000004 38.250000000000007
decision_type=2 2 2 2 2 2 2 2 2
left_child=1 -1 3 -3 -4 -2 -6 -8 -9
right_child=5 2 4 -5 6 -7 7 8 -10
leaf_value=0.036393768335853949 -0.074493616111686409 0.057964746472970119 -0.0024546880318695977 0.0031449178643628475 -0.0043641744909564484 0.0054588029420978759 -0.083935761866496511 0.044501147731376804 -0.072171820156779309
leaf_weight=20.378195848315954 4.2591836228966704 8.1521282941102964 88.053821422159672 35.377563193440437 9.3660513684153575 2.9411269798874855 7.9102161973714855 4.6337618231773359 4.3445370346307755
leaf_count=123 32 134 639 173 64 25 49 36 34
internal_value=0 0.00166719 -0.0028163 0.0134114 -0.00899597 -0.0418353 -0.0309344 -0.0456698 -0.0119561
internal_weight=0 178.216 157.838 43.5297 114.308 7.20031 26.2546 16.8885 8.9783
internal_count=1309 1252 1129 307 822 57 183 119 70
is_linear=0
shrinkage=0.1


Tree=33
num_leaves=10
num_cat=0
split_feature=2 1 0 1 1 1 3 1 1
split_gain=1.10776 1.4848 1.89115 0.877288 1.34259 1.33719 2.17488 1.27042 0.840986
threshold=1.0000000180025095e-35 3.5000000000000004 1.5000000000000002 36.750000000000007 30.250000000000004 24.250000000000004 1.0000000180025095e-35 44.500000000000007 22.250000000000004
decision_type=2 2 2 2 2 2 2 2 2
left_child=1 -1 -3 4 5 8 -7 -5 -4
right_child=-2 2 3 7 -6 6 -8 -9 -10
leaf_value=-0.048027129706271654 -0.0060915185108049996 0.058260006114600353 0.010632656146985966 -0.057406569735576965 0.059169687089960205 0.011049475006408011 -0.079642946793849881 0.015118498040761749 0.057638614760367406
leaf_weight=4.164845496416091 114.27514189109206 8.2692837342619878 26.723621562123302 4.7287193238735181 5.4955871701240531 7.0785069465637189 4.2209199815988541 4.936943843960762 4.4382421821355811
leaf_count=23 843 143 136 24 33 35 22 26 24
internal_value=0 0.00987913 0.0135392 0.00712145 0.0126609 0.00664145 -0.0228288 -0.0203628 0.0173275
internal_weight=0 70.0567 65.8918 57.6225 47.9569 42.4613 11.2994 9.66566 31.1619
internal_count=1309 466 443 300 250 217 57 50 160
is_linear=0
shrinkage=0.1


Tree=34
num_leaves=10
num_cat=0
split_feature=3 1 1 0 1 1 4 4 1
split_gain=1.07424 2.35588 1.50186 0.955431 1.81371 0.953617 0.912292 1.27906 2.01208
threshold=2.5000000000000004 16.500000000000004 18.750000000000004 2.5000000000000004 14.750000000000002 9.5000000000000018 2.5000000000000004 1.0000000180025095e-35 24.250000000000004
decision_type=2 2 2 2 2 2 2 2 2
left_child=1 3 -3 -1 -5 -2 7 -4 -9
right_child=5 2 6 4 -6 -7 -8 8 -10
leaf_value=0.072900876720467314 -0.070110994372745192 -0.03995612721252987 -0.0025171500093889177 0.0015270788536109071 0.080298742305730267 0.0047458506454622455 -0.051531550625231626 0.093427005432241556 0.0096707628231409506
leaf_weight=4.7506391629576692 4.0299407616257659 10.087749160826204 124.20089985430241 11.470946073532103 3.9225195944309244 2.9457904957234859 3.3645719513297072 3.540078058838847 15.112744115293024
leaf_count=42 32 75 893 55 26 25 23 27 111
internal_value=0 0.00151105 -0.00263707 0.033698 0.0215995 -0.0384996 -6.23947e-05 0.00114984 0.0255667
internal_weight=0 176.45 156.306 20.1441 15.3935 6.97573 146.218 142.854 18.6528
internal_count=1309 1252 1129 123 81 57 1054 1031 138
is_linear=0
shrinkage=0.1


Tree=35
num_leaves=10
num_cat=0
split_feature=2 0 1 1 1 1 0 1 1
split_gain=0.902892 1.21573 1.4885 0.79234 2.19348 1.702 2.38553 1.00038 1.92269
threshold=1.0000000180025095e-35 2.5000000000000004 54.500000000000007 24.250000000000004 27.500000000000004 14.250000000000002 2.5000000000000004 19.500000000000004 20.250000000000004
decision_type=2 2 2 2 2 2 2 2 2
left_child=1 2 -1 5 -5 6 -2 -7 -9
right_child=3 -3 -4 4 -6 7 -8 8 -10
leaf_value=0.037890954647574603 0.098164748575753899 0.00046415577477415868 -0.05903482329535701 0.035639897168693743 -0.0078203394801558985 -0.057863199544356071 -0.013003108801401667 0.049231264584753402 -0.031077625474381684
leaf_weight=18.524329293519262 2.7589743435382825 48.866664230823517 1.7326093390583981 14.355616331100462 60.789915390312672 8.4950934201478976 6.4268262721598148 3.6076923906803158 17.165295079350471
leaf_count=229 17 216 21 91 444 85 48 29 129
internal_value=0 0.00900274 0.0296007 -0.00549209 0.000482197 -0.0171669 0.0203864 -0.028953 -0.0171302
internal_weight=0 69.1236 20.2569 113.599 75.1455 38.4539 9.1858 29.2681 20.773
internal_count=1309 466 250 843 535 308 65 243 158
is_linear=0
shrinkage=0.1


Tree=36
num_leaves=10
num_cat=0
split_feature=0 1 1 1 1 2 0 1 1
split_gain=0.903472 1.14448 2.22767 1.53195 0.994454 1.00473 1.7196 1.38664 3.25452
threshold=1.5000000000000002 5.5000000000000009 2.5000000000000004 11.250000000000002 36.750000000000007 1.0000000180025095e-35 2.5000000000000004 24.250000000000004 25.500000000000004
decision_type=2 2 2 2 2 2 2 2 2
left_child=-1 2 -2 -3 5 -5 -7 -8 -9
right_child=1 3 -4 4 -6 6 7 8 -10
leaf_value=0.01246629820213456 -0.0065559799766970175 -0.061304633986574542 0.092307120810721607 0.011153119979108174 -0.025560361859933347 -0.03987286924466979 -0.018139963277272093 0.098804489530534903 0.00064213485916243807
leaf_weight=43.979092892259359 6.39209286123514 4.9118519350886336 3.5422411039471626 43.09897968173027 18.733828462660313 13.779749654233454 21.885603062808514 4.0159542858600643 21.245328821241856
leaf_count=323 40 36 24 223 170 114 193 25 161
internal_value=0 -0.00399847 0.0286952 -0.00654243 -0.00435128 -0.000531767 -0.00879756 0.000284911 0.0162477
internal_weight=0 137.606 9.93433 127.671 122.759 104.026 60.9266 47.1469 25.2613
internal_count=1309 986 64 922 886 716 493 379 186
is_linear=0
shrinkage=0.1


Tree=37
num_leaves=10
num_cat=0
split_feature=3 1 1 1 1 0 4 4 1
split_gain=0.855691 1.83557 1.13795 0.853746 0.819334 1.41783 0.720008 0.985232 1.6961
threshold=2.5000000000000004 16.500000000000004 18.750000000000004 9.5000000000000018 14.750000000000002 2.5000000000000004 2.5000000000000004 1.0000000180025095e-35 24.250000000000004
decision_type=2 2 2 2 2 2 2 2 2
left_child=1 4 -3 -2 5 -1 7 -4 -9
right_child=3 2 6 -5 -6 -7 -8 8 -10
leaf_value=0.072132179109458808 -0.066130982287347997 -0.035401998760974392 -0.0022525148738618897 0.0059093208042749271 0.068664583197490983 0.0017074276104189639 -0.046396649381331034 0.086048253710127171 0.0080471253864998395
leaf_weight=3.8108554929494867 3.8155150562524787 9.7448753751814348 123.15271513909101 2.891856025904417 4.3135655634105197 11.442063540220261 3.2829691097140303 3.4238618947565582 15.004464682191609
leaf_count=34 32 75 893 25 34 55 23 27 111
internal_value=0 0.00132775 -0.00232425 -0.0350711 0.0301848 0.0193027 -9.91409e-05 0.000974402 0.0225392
internal_weight=0 174.175 154.609 6.70737 19.5665 15.2529 144.864 141.581 18.4283
internal_count=1309 1252 1129 57 123 89 1054 1031 138
is_linear=0
shrinkage=0.1


Tree=38
num_leaves=10
num_cat=0
split_feature=3 1 1 0 3 2 1 4 1
split_gain=0.713975 1.50757 1.18414 0.977502 1.49094 1.30919 0.796581 1.13204 1.32159
threshold=2.5000000000000004 16.500000000000004 10.500000000000002 1.5000000000000002 1.0000000180025095e-35 1.0000000180025095e-35 32.250000000000007 1.0000000180025095e-35 20.250000000000004
decision_type=2 2 2 2 2 2 2 2 2
left_child=1 -1 -2 5 6 -3 7 8 -5
right_child=2 3 -4 4 -6 -7 -8 -9 -10
leaf_value=0.027519026235765461 -0.066723597397811904 0.049937918330369424 0.020360958131814207 -0.027135101467333292 -0.028218596582162525 0.0029405239590170359 -0.018422005086538452 0.060423563549638654 0.0087630067315838823
leaf_weight=19.344004210084677 3.9673014208674422 7.1215307824313632 2.5747870989143848 12.875341452658175 25.54872839525342 35.345048457384109 19.636599726974964 3.4325182363390914 50.399757735431194
leaf_count=123 36 134 21 102 183 173 194 18 325
internal_value=0 0.00120254 -0.0324495 -0.00209539 -0.00699785 0.0108219 -0.000718761 0.00449251 0.00145839
internal_weight=0 173.704 6.54209 154.36 111.893 42.4666 86.3442 66.7076 63.2751
internal_count=1309 1252 57 1129 822 307 639 445 427
is_linear=0
shrinkage=0.1


Tree=39
num_leaves=10
num_cat=0
split_feature=4 2 1 0 1 1 3 0 1
split_gain=0.666425 0.693327 1.28861 1.09307 0.790321 1.07202 1.96615 0.72492 0.697119
threshold=2.5000000000000004 1.0000000180025095e-35 3.5000000000000004 1.5000000000000002 32.250000000000007 24.250000000000004 1.0000000180025095e-35 2.5000000000000004 24.250000000000004
decision_type=2 2 2 2 2 2 2 2 2
left_child=1 2 -1 8 5 -5 -7 -6 -4
right_child=-2 -3 3 4 7 6 -8 -9 -10
leaf_value=-0.045868230855063918 -0.044353278505113086 -0.0039766655827149777 0.10528939462721726 0.012169862825776499 -0.0012537493567461174 0.0098026950141698963 -0.069073630090864618 0.052160596861932168 0.031925236227301611
leaf_weight=4.0108662582933894 3.3275416530668727 111.10218089818954 1.7031201645731915 29.842370320111513 4.0868055596947652 7.8057688623666746 5.3101347610354424 6.7166505753993988 5.4077397994697094
leaf_count=23 24 835 36 158 32 40 27 29 105
internal_value=0 0.000819964 0.0090334 0.0126508 0.00777738 0.00169711 -0.0221314 0.0319547 0.0494967
internal_weight=0 175.986 64.8835 60.8726 53.7617 42.9583 13.1159 10.8035 7.11086
internal_count=1309 1285 450 427 286 225 67 61 141
is_linear=0
shrinkage=0.1


Tree=40
num_leaves=10
num_cat=0
split_feature=3 1 1 1 1 0 1 0 1
split_gain=0.600667 1.27263 0.980721 0.933001 0.629931 1.22999 0.664708 0.489364 0.831459
threshold=2.5000000000000004 16.500000000000004 10.500000000000002 18.750000000000004 14.750000000000002 2.5000000000000004 5.5000000000000009 1.5000000000000002 56.500000000000007
decision_type=2 2 2 2 2 2 2 2 2
left_child=1 4 -2 -3 5 -1 -7 8 -5
right_child=2 3 -4 7 -6 6 -8 -9 -10
leaf_value=0.066911300806116708 -0.062809824473857648 -0.032216775671435952 0.017030232219817157 0.013932069455007827 0.059570233361980265 0.02375049607499825 -0.024624829905513703 -0.0035925478131377401 -0.035273650495329094
leaf_weight=3.5778343714773664 3.7640845887362948 9.5407732725143415 2.6020943820476532 36.932722203433514 4.210709571838378 5.707956537604332 5.65399569272995 103.01290092244744 3.7861128821969023
leaf_count=34 36 75 21 258 34 29 26 758 38
internal_value=0 0.00110261 -0.0301762 -0.00193415 0.0254076 0.0157791 -0.000322293 7.5978e-05 0.00935683
internal_weight=0 172.423 6.36618 153.273 19.1505 14.9398 11.362 143.732 40.7188
internal_count=1309 1252 57 1129 123 89 55 1054 296
is_linear=0
shrinkage=0.1


Tree=41
num_leaves=10
num_cat=0
split_feature=2 1 0 1 1 1 1 1 1
split_gain=0.544788 1.05818 1.07267 0.68174 1.06379 4.04516 1.22124 1.60694 1.85484
threshold=1.0000000180025095e-35 3.5000000000000004 1.5000000000000002 53.500000000000007 47.500000000000007 45.250000000000007 41.500000000000007 36.750000000000007 33.500000000000007
decision_type=2 2 2 2 2 2 2 2 2
left_child=1 -1 -3 4 5 6 7 8 -2
right_child=3 2 -4 -5 -6 -7 -8 -9 -10
leaf_value=-0.042946906992186944 -0.0053945345890965245 0.047493314400133831 0.005693326574990349 -0.036283613724796389 0.036022322201366176 -0.12367550958353912 0.043389732663732916 -0.051562009187322101 0.046056532629860168
leaf_weight=3.9733876064419738 75.235292974859476 6.8920351490378371 56.206232517957687 6.2893207147717467 6.7468233779072753 2.7917946577072135 5.6854941472411147 6.6868177615106097 7.7263444438576689
leaf_count=23 554 143 300 63 39 22 43 60 62
internal_value=0 0.00710705 0.010259 -0.00430493 -0.00238713 -0.00502805 -0.00155353 -0.00440383 -0.000602818
internal_weight=0 67.0717 63.0983 111.162 104.873 98.1257 95.3339 89.6485 82.9616
internal_count=1309 466 443 843 780 741 719 676 616
is_linear=0
shrinkage=0.1


Tree=42
num_leaves=10
num_cat=0
split_feature=4 3 4 1 1 2 3 1 4
split_gain=0.539016 0.536383 0.733918 1.1024 1.11395 0.78657 0.703293 2.13316 1.88745
threshold=2.5000000000000004 3.5000000000000004 1.0000000180025095e-35 16.500000000000004 18.750000000000004 1.0000000180025095e-35 1.0000000180025095e-35 32.750000000000007 1.5000000000000002
decision_type=2 2 2 2 2 2 2 2 2
left_child=1 2 3 -1 5 -5 -4 8 -8
right_child=-2 -3 6 4 -6 -7 7 -9 -10
leaf_value=0.0361862646317581 -0.040305143596055915 -0.036798794344513691 0.03306105227449329 -0.015343931298075942 -0.0014733174828946453 -0.080933129633723969 0.0055136270165850945 0.059715736806179531 -0.074605415989992638
leaf_weight=7.2812819927930823 3.2606585808098307 3.7266341149806967 12.974934894591568 4.7389302067458621 122.25120658800006 2.9770241156220436 11.281174186617138 5.031428061425685 3.9769725091755381
leaf_count=45 24 37 95 24 896 37 74 42 35
internal_value=0 0.000731723 0.00155197 -0.00167788 -0.00379918 -0.04065 0.0148782 0.00325053 -0.0153691
internal_weight=0 174.24 170.513 137.248 129.967 7.71595 33.2645 20.2896 15.2581
internal_count=1309 1285 1248 1002 957 61 246 151 109
is_linear=0
shrinkage=0.1


Tree=43
num_leaves=10
num_cat=0
split_feature=1 1 1 2 1 1 1 1 1
split_gain=0.51229 2.5693 0.875458 0.811888 1.04202 1.03563 1.05605 1.57974 1.00736
threshold=5.5000000000000009 2.5000000000000004 11.250000000000002 1.0000000180025095e-35 19.500000000000004 20.250000000000004 24.250000000000004 27.500000000000004 28.750000000000004
decision_type=2 2 2 2 2 2 2 2 2
left_child=1 -1 -2 -4 -5 -6 -7 -8 -9
right_child=2 -3 3 4 5 6 7 8 -10
leaf_value=-0.015490123656381451 -0.043053666754599131 0.09340699773542277 0.0093517631925367738 -0.036855130383912936 0.050559973188903734 -0.027146498994801815 0.030196481800687514 -0.04968160651094277 -0.0025109397153532621
leaf_weight=6.2069671452045423 4.8771990574896327 3.3284486085176468 58.652879279106855 9.5422620140016061 3.582001529633998 16.499393172562122 14.688619427382944 4.9356320425868025 54.722940035164356
leaf_count=42 38 25 416 95 29 129 91 38 406
internal_value=0 0.0225217 -0.00130758 -5.55874e-05 -0.00536254 -0.00218013 -0.00425962 0.000819513 -0.00641343
internal_weight=0 9.53542 167.501 162.624 103.971 94.4286 90.8466 74.3472 59.6586
internal_count=1309 67 1242 1204 788 693 664 535 444
is_linear=0
shrinkage=0.1


Tree=44
num_leaves=10
num_cat=0
split_feature=1 1 1 1 1 0 2 4 2
split_gain=0.469544 1.9931 1.42336 1.23345 1.41876 1.10112 1.72847 1.03407 1.09878
threshold=36.750000000000007 33.500000000000007 37.500000000000007 32.250000000000007 31.500000000000004 1.5000000000000002 1.0000000180025095e-35 1.5000000000000002 1.0000000180025095e-35
decision_type=2 2 2 2 2 2 2 2 2
left_child=1 3 -2 4 -1 -3 -7 8 -4
right_child=2 5 7 -5 -6 6 -8 -9 -10
leaf_value=-0.0012945080176163949 -0.09039552926579901 0.079611698988276705 0.030718658404569582 -0.05739631393859719 0.053309833255581834 0.0792090358938949 -0.02809788496503033 -0.054420231690748888 -0.010078769440971427
leaf_weight=116.11415461823344 2.0623319968581191 4.7917753718793374 8.8534786626696569 3.7358800098299971 4.9616549313068381 2.5405076295137405 3.6689081788063049 3.8340893760323516 25.953880656510592
leaf_count=806 13 30 95 35 30 17 45 30 208
internal_value=0 0.00279349 -0.00945106 -0.000803061 0.000943164 0.0435975 0.0158054 -0.00513097 0.000298322
internal_weight=0 135.813 40.7038 124.812 121.076 11.0012 6.20942 38.6414 34.8074
internal_count=1309 963 346 871 836 92 62 333 303
is_linear=0
shrinkage=0.1


end of trees

feature_importances:
age=219
pclass=74
sibsp=49
sex=43
parch=20

parameters:
[boosting: gbdt]
[objective: binary]
[metric: binary_logloss]
[tree_learner: serial]
[device_type: cpu]
[data: ]
[valid: ]
[num_iterations: 45]
[learning_rate: 0.1]
[num_leaves: 10]
[num_threads: 0]
[deterministic: 0]
[force_col_wise: 0]
[force_row_wise: 1]
[histogram_pool_size: -1]
[max_depth: -1]
[min_data_in_leaf: 20]
[min_sum_hessian_in_leaf: 0.001]
[bagging_fraction: 1]
[pos_bagging_fraction: 1]
[neg_bagging_fraction: 1]
[bagging_freq: 0]
[bagging_seed: 3]
[feature_fraction: 1]
[feature_fraction_bynode: 1]
[feature_fraction_seed: 2]
[extra_trees: 0]
[extra_seed: 6]
[early_stopping_round: 0]
[first_metric_only: 0]
[max_delta_step: 0]
[lambda_l1: 0]
[lambda_l2: 0]
[linear_lambda: 0]
[min_gain_to_split: 0]
[drop_rate: 0.1]
[max_drop: 50]
[skip_drop: 0.5]
[xgboost_dart_mode: 0]
[uniform_drop: 0]
[drop_seed: 4]
[top_rate: 0.2]
[other_rate: 0.1]
[min_data_per_group: 100]
[max_cat_threshold: 32]
[cat_l2: 10]
[cat_smooth: 10]
[max_cat_to_onehot: 4]
[top_k: 20]
[monotone_constraints: ]
[monotone_constraints_method: basic]
[monotone_penalty: 0]
[feature_contri: ]
[forcedsplits_filename: ]
[refit_decay_rate: 0.9]
[cegb_tradeoff: 1]
[cegb_penalty_split: 0]
[cegb_penalty_feature_lazy: ]
[cegb_penalty_feature_coupled: ]
[path_smooth: 0]
[interaction_constraints: ]
[verbosity: 0]
[saved_feature_importance_type: 0]
[linear_tree: 0]
[max_bin: 255]
[max_bin_by_feature: ]
[min_data_in_bin: 3]
[bin_construct_sample_cnt: 200000]
[data_random_seed: 1]
[is_enable_sparse: 1]
[enable_bundle: 1]
[use_missing: 1]
[zero_as_missing: 0]
[feature_pre_filter: 1]
[pre_partition: 0]
[two_round: 0]
[header: 0]
[label_column: ]
[weight_column: ]
[group_column: ]
[ignore_column: ]
[categorical_feature: ]
[forcedbins_filename: ]
[precise_float_parser: 0]
[objective_seed: 5]
[num_class: 1]
[is_unbalance: 0]
[scale_pos_weight: 1]
[sigmoid: 1]
[boost_from_average: 1]
[reg_sqrt: 0]
[alpha: 0.9]
[fair_c: 1]
[poisson_max_delta_step: 0.7]
[tweedie_variance_power: 1.5]
[lambdarank_truncation_level: 30]
[lambdarank_norm: 1]
[label_gain: ]
[eval_at: ]
[multi_error_top_k: 1]
[auc_mu_weights: ]
[num_machines: 1]
[local_listen_port: 12400]
[time_out: 120]
[machine_list_filename: ]
[machines: ]
[gpu_platform_id: -1]
[gpu_device_id: -1]
[gpu_use_dp: 0]
[num_gpu: 1]

end of parameters
